digraph Tree {
node [shape=box] ;
0 [label="Light_d5 <= 0.417\ngini = 0.334\nsamples = 8143\nvalue = [[6414, 1729]\n[1729, 6414]]"] ;
1 [label="Light_d5 <= -0.042\ngini = 0.259\nsamples = 6924\nvalue = [[5866, 1058]\n[1058, 5866]]"] ;
0 -> 1 [labeldistance=2.5, labelangle=45, headlabel="True"] ;
2 [label="CO2_d5 <= 11.417\ngini = 0.5\nsamples = 1248\nvalue = [[614, 634]\n[634, 614]]"] ;
1 -> 2 ;
3 [label="CO2_d5 <= -9.9\ngini = 0.465\nsamples = 962\nvalue = [[608, 354]\n[354, 608]]"] ;
2 -> 3 ;
4 [label="Light_d3 <= -36.5\ngini = 0.454\nsamples = 201\nvalue = [[70, 131]\n[131, 70]]"] ;
3 -> 4 ;
5 [label="Light_d3 <= -268.625\ngini = 0.351\nsamples = 22\nvalue = [[17, 5]\n[5, 17]]"] ;
4 -> 5 ;
6 [label="gini = 0.0\nsamples = 7\nvalue = [[7, 0]\n[0, 7]]"] ;
5 -> 6 ;
7 [label="gini = 0.444\nsamples = 15\nvalue = [[10, 5]\n[5, 10]]"] ;
5 -> 7 ;
8 [label="Humiditiy_d5 <= -0.216\ngini = 0.417\nsamples = 179\nvalue = [[53, 126]\n[126, 53]]"] ;
4 -> 8 ;
9 [label="gini = 0.149\nsamples = 37\nvalue = [[3, 34]\n[34, 3]]"] ;
8 -> 9 ;
10 [label="gini = 0.456\nsamples = 142\nvalue = [[50, 92]\n[92, 50]]"] ;
8 -> 10 ;
11 [label="Humiditiy_d3 <= 0.126\ngini = 0.414\nsamples = 761\nvalue = [[538, 223]\n[223, 538]]"] ;
3 -> 11 ;
12 [label="Humiditiy_d1 <= -0.094\ngini = 0.377\nsamples = 706\nvalue = [[528, 178]\n[178, 528]]"] ;
11 -> 12 ;
13 [label="gini = 0.4\nsamples = 29\nvalue = [[8, 21]\n[21, 8]]"] ;
12 -> 13 ;
14 [label="gini = 0.356\nsamples = 677\nvalue = [[520, 157]\n[157, 520]]"] ;
12 -> 14 ;
15 [label="Light_d5 <= -273.833\ngini = 0.298\nsamples = 55\nvalue = [[10, 45]\n[45, 10]]"] ;
11 -> 15 ;
16 [label="gini = 0.0\nsamples = 6\nvalue = [[6, 0]\n[0, 6]]"] ;
15 -> 16 ;
17 [label="gini = 0.15\nsamples = 49\nvalue = [[4, 45]\n[45, 4]]"] ;
15 -> 17 ;
18 [label="CO2_d5 <= 17.958\ngini = 0.041\nsamples = 286\nvalue = [[6, 280]\n[280, 6]]"] ;
2 -> 18 ;
19 [label="Light_d5 <= -239.042\ngini = 0.139\nsamples = 80\nvalue = [[6, 74]\n[74, 6]]"] ;
18 -> 19 ;
20 [label="gini = 0.0\nsamples = 1\nvalue = [[1, 0]\n[0, 1]]"] ;
19 -> 20 ;
21 [label="CO2_d1 <= 10.708\ngini = 0.119\nsamples = 79\nvalue = [[5, 74]\n[74, 5]]"] ;
19 -> 21 ;
22 [label="gini = 0.101\nsamples = 75\nvalue = [[4, 71]\n[71, 4]]"] ;
21 -> 22 ;
23 [label="gini = 0.375\nsamples = 4\nvalue = [[1, 3]\n[3, 1]]"] ;
21 -> 23 ;
24 [label="gini = 0.0\nsamples = 206\nvalue = [[0, 206]\n[206, 0]]"] ;
18 -> 24 ;
25 [label="Humiditiy_d5 <= 0.216\ngini = 0.138\nsamples = 5676\nvalue = [[5252, 424]\n[424, 5252]]"] ;
1 -> 25 ;
26 [label="Light_d1 <= 0.375\ngini = 0.119\nsamples = 5569\nvalue = [[5214, 355]\n[355, 5214]]"] ;
25 -> 26 ;
27 [label="Light_d3 <= -0.625\ngini = 0.111\nsamples = 5534\nvalue = [[5208, 326]\n[326, 5208]]"] ;
26 -> 27 ;
28 [label="CO2_d3 <= 6.25\ngini = 0.414\nsamples = 41\nvalue = [[12, 29]\n[29, 12]]"] ;
27 -> 28 ;
29 [label="gini = 0.494\nsamples = 27\nvalue = [[12, 15]\n[15, 12]]"] ;
28 -> 29 ;
30 [label="gini = 0.0\nsamples = 14\nvalue = [[0, 14]\n[14, 0]]"] ;
28 -> 30 ;
31 [label="CO2_d1 <= 8.25\ngini = 0.102\nsamples = 5493\nvalue = [[5196, 297]\n[297, 5196]]"] ;
27 -> 31 ;
32 [label="gini = 0.091\nsamples = 5414\nvalue = [[5154, 260]\n[260, 5154]]"] ;
31 -> 32 ;
33 [label="gini = 0.498\nsamples = 79\nvalue = [[42, 37]\n[37, 42]]"] ;
31 -> 33 ;
34 [label="Humiditiy_d3 <= -0.024\ngini = 0.284\nsamples = 35\nvalue = [[6, 29]\n[29, 6]]"] ;
26 -> 34 ;
35 [label="gini = 0.0\nsamples = 14\nvalue = [[0, 14]\n[14, 0]]"] ;
34 -> 35 ;
36 [label="Light_d1 <= 12.375\ngini = 0.408\nsamples = 21\nvalue = [[6, 15]\n[15, 6]]"] ;
34 -> 36 ;
37 [label="gini = 0.332\nsamples = 19\nvalue = [[4, 15]\n[15, 4]]"] ;
36 -> 37 ;
38 [label="gini = 0.0\nsamples = 2\nvalue = [[2, 0]\n[0, 2]]"] ;
36 -> 38 ;
39 [label="CO2_d3 <= 9.333\ngini = 0.458\nsamples = 107\nvalue = [[38, 69]\n[69, 38]]"] ;
25 -> 39 ;
40 [label="CO2_d5 <= 5.875\ngini = 0.38\nsamples = 51\nvalue = [[38, 13]\n[13, 38]]"] ;
39 -> 40 ;
41 [label="Humiditiy_d5 <= 0.235\ngini = 0.145\nsamples = 38\nvalue = [[35, 3]\n[3, 35]]"] ;
40 -> 41 ;
42 [label="gini = 0.375\nsamples = 4\nvalue = [[1, 3]\n[3, 1]]"] ;
41 -> 42 ;
43 [label="gini = 0.0\nsamples = 34\nvalue = [[34, 0]\n[0, 34]]"] ;
41 -> 43 ;
44 [label="Humiditiy_d3 <= 0.12\ngini = 0.355\nsamples = 13\nvalue = [[3, 10]\n[10, 3]]"] ;
40 -> 44 ;
45 [label="gini = 0.0\nsamples = 7\nvalue = [[0, 7]\n[7, 0]]"] ;
44 -> 45 ;
46 [label="gini = 0.5\nsamples = 6\nvalue = [[3, 3]\n[3, 3]]"] ;
44 -> 46 ;
47 [label="gini = 0.0\nsamples = 56\nvalue = [[0, 56]\n[56, 0]]"] ;
39 -> 47 ;
48 [label="Humiditiy_d1 <= 0.075\ngini = 0.495\nsamples = 1219\nvalue = [[548, 671]\n[671, 548]]"] ;
0 -> 48 [labeldistance=2.5, labelangle=-45, headlabel="False"] ;
49 [label="CO2_d1 <= 3.292\ngini = 0.5\nsamples = 1091\nvalue = [[535, 556]\n[556, 535]]"] ;
48 -> 49 ;
50 [label="CO2_d3 <= 7.792\ngini = 0.49\nsamples = 828\nvalue = [[472, 356]\n[356, 472]]"] ;
49 -> 50 ;
51 [label="CO2_d5 <= -9.875\ngini = 0.462\nsamples = 722\nvalue = [[460, 262]\n[262, 460]]"] ;
50 -> 51 ;
52 [label="CO2_d5 <= -34.417\ngini = 0.443\nsamples = 142\nvalue = [[47, 95]\n[95, 47]]"] ;
51 -> 52 ;
53 [label="gini = 0.0\nsamples = 11\nvalue = [[0, 11]\n[11, 0]]"] ;
52 -> 53 ;
54 [label="gini = 0.46\nsamples = 131\nvalue = [[47, 84]\n[84, 47]]"] ;
52 -> 54 ;
55 [label="CO2_d5 <= 5.867\ngini = 0.41\nsamples = 580\nvalue = [[413, 167]\n[167, 413]]"] ;
51 -> 55 ;
56 [label="gini = 0.336\nsamples = 501\nvalue = [[394, 107]\n[107, 394]]"] ;
55 -> 56 ;
57 [label="gini = 0.365\nsamples = 79\nvalue = [[19, 60]\n[60, 19]]"] ;
55 -> 57 ;
58 [label="CO2_d5 <= 9.833\ngini = 0.201\nsamples = 106\nvalue = [[12, 94]\n[94, 12]]"] ;
50 -> 58 ;
59 [label="CO2_d5 <= 6.375\ngini = 0.452\nsamples = 29\nvalue = [[10, 19]\n[19, 10]]"] ;
58 -> 59 ;
60 [label="gini = 0.332\nsamples = 19\nvalue = [[4, 15]\n[15, 4]]"] ;
59 -> 60 ;
61 [label="gini = 0.48\nsamples = 10\nvalue = [[6, 4]\n[4, 6]]"] ;
59 -> 61 ;
62 [label="CO2_d3 <= 10.375\ngini = 0.051\nsamples = 77\nvalue = [[2, 75]\n[75, 2]]"] ;
58 -> 62 ;
63 [label="gini = 0.188\nsamples = 19\nvalue = [[2, 17]\n[17, 2]]"] ;
62 -> 63 ;
64 [label="gini = 0.0\nsamples = 58\nvalue = [[0, 58]\n[58, 0]]"] ;
62 -> 64 ;
65 [label="Light_d1 <= -8.208\ngini = 0.364\nsamples = 263\nvalue = [[63, 200]\n[200, 63]]"] ;
49 -> 65 ;
66 [label="Humiditiy_d5 <= 0.114\ngini = 0.408\nsamples = 14\nvalue = [[10, 4]\n[4, 10]]"] ;
65 -> 66 ;
67 [label="CO2_d1 <= 3.583\ngini = 0.278\nsamples = 12\nvalue = [[10, 2]\n[2, 10]]"] ;
66 -> 67 ;
68 [label="gini = 0.0\nsamples = 2\nvalue = [[0, 2]\n[2, 0]]"] ;
67 -> 68 ;
69 [label="gini = 0.0\nsamples = 10\nvalue = [[10, 0]\n[0, 10]]"] ;
67 -> 69 ;
70 [label="gini = 0.0\nsamples = 2\nvalue = [[0, 2]\n[2, 0]]"] ;
66 -> 70 ;
71 [label="Humiditiy_d5 <= 0.024\ngini = 0.335\nsamples = 249\nvalue = [[53, 196]\n[196, 53]]"] ;
65 -> 71 ;
72 [label="CO2_d5 <= 11.5\ngini = 0.476\nsamples = 100\nvalue = [[39, 61]\n[61, 39]]"] ;
71 -> 72 ;
73 [label="gini = 0.497\nsamples = 84\nvalue = [[39, 45]\n[45, 39]]"] ;
72 -> 73 ;
74 [label="gini = 0.0\nsamples = 16\nvalue = [[0, 16]\n[16, 0]]"] ;
72 -> 74 ;
75 [label="Humiditiy_d5 <= 0.159\ngini = 0.17\nsamples = 149\nvalue = [[14, 135]\n[135, 14]]"] ;
71 -> 75 ;
76 [label="gini = 0.264\nsamples = 83\nvalue = [[13, 70]\n[70, 13]]"] ;
75 -> 76 ;
77 [label="gini = 0.03\nsamples = 66\nvalue = [[1, 65]\n[65, 1]]"] ;
75 -> 77 ;
78 [label="CO2_d5 <= 19.5\ngini = 0.182\nsamples = 128\nvalue = [[13, 115]\n[115, 13]]"] ;
48 -> 78 ;
79 [label="Humiditiy_d5 <= -0.015\ngini = 0.302\nsamples = 70\nvalue = [[13, 57]\n[57, 13]]"] ;
78 -> 79 ;
80 [label="gini = 0.0\nsamples = 20\nvalue = [[0, 20]\n[20, 0]]"] ;
79 -> 80 ;
81 [label="Humiditiy_d1 <= 0.138\ngini = 0.385\nsamples = 50\nvalue = [[13, 37]\n[37, 13]]"] ;
79 -> 81 ;
82 [label="Light_d5 <= 20.125\ngini = 0.471\nsamples = 29\nvalue = [[11, 18]\n[18, 11]]"] ;
81 -> 82 ;
83 [label="gini = 0.413\nsamples = 24\nvalue = [[7, 17]\n[17, 7]]"] ;
82 -> 83 ;
84 [label="gini = 0.32\nsamples = 5\nvalue = [[4, 1]\n[1, 4]]"] ;
82 -> 84 ;
85 [label="Humiditiy_d5 <= 0.485\ngini = 0.172\nsamples = 21\nvalue = [[2, 19]\n[19, 2]]"] ;
81 -> 85 ;
86 [label="gini = 0.1\nsamples = 19\nvalue = [[1, 18]\n[18, 1]]"] ;
85 -> 86 ;
87 [label="gini = 0.5\nsamples = 2\nvalue = [[1, 1]\n[1, 1]]"] ;
85 -> 87 ;
88 [label="gini = 0.0\nsamples = 58\nvalue = [[0, 58]\n[58, 0]]"] ;
78 -> 88 ;
}